Language model created by QuickLM on Wed Apr 26 10:19:02 EDT 2017
Copyright (c) 1996-2010 Carnegie Mellon University and Alexander I. Rudnicky

The model is in standard ARPA format, designed by Doug Paul while he was at MITRE.

The code that was used to produce this language model is available in Open Source.
Please visit http://www.speech.cs.cmu.edu/tools/ for more information

The (fixed) discount mass is 0.5. The backoffs are computed using the ratio method.
This model based on a corpus of 6 sentences and 18 words

\data\
ngram 1=18
ngram 2=24
ngram 3=24

\1-grams:
-1.1027 </s> -0.3010
-1.1027 <s> -0.2653
-1.8808 A -0.2953
-1.1027 ALFRED -0.2653
-1.5798 LIGHT -0.2653
-1.5798 ME -0.2894
-1.8808 OF -0.2653
-1.8808 OFF -0.2835
-1.8808 ON -0.2835
-1.8808 PLAY -0.2953
-1.8808 REMIND -0.2894
-1.8808 SONG -0.2653
-1.8808 TELL -0.2835
-1.4037 THE -0.2835
-1.8808 TIME -0.2653
-1.5798 TURN -0.2894
-1.8808 UP -0.2653
-1.8808 WAKE -0.2894

\2-grams:
-0.3010 <s> ALFRED 0.0000
-0.3010 A SONG 0.0000
-1.0792 ALFRED PLAY 0.0000
-1.0792 ALFRED REMIND 0.0000
-1.0792 ALFRED TELL 0.0000
-0.7782 ALFRED TURN 0.0000
-1.0792 ALFRED WAKE 0.0000
-0.3010 LIGHT </s> -0.3010
-0.6021 ME OF 0.0000
-0.6021 ME UP 0.0000
-0.3010 OF </s> -0.3010
-0.3010 OFF THE -0.1249
-0.3010 ON THE -0.1249
-0.3010 PLAY A 0.0000
-0.3010 REMIND ME -0.1761
-0.3010 SONG </s> -0.3010
-0.3010 TELL THE -0.2218
-0.4771 THE LIGHT 0.0000
-0.7782 THE TIME 0.0000
-0.3010 TIME </s> -0.3010
-0.6021 TURN OFF 0.0000
-0.6021 TURN ON 0.0000
-0.3010 UP </s> -0.3010
-0.3010 WAKE ME -0.1761

\3-grams:
-1.0792 <s> ALFRED PLAY
-1.0792 <s> ALFRED REMIND
-1.0792 <s> ALFRED TELL
-0.7782 <s> ALFRED TURN
-1.0792 <s> ALFRED WAKE
-0.3010 A SONG </s>
-0.3010 ALFRED PLAY A
-0.3010 ALFRED REMIND ME
-0.3010 ALFRED TELL THE
-0.6021 ALFRED TURN OFF
-0.6021 ALFRED TURN ON
-0.3010 ALFRED WAKE ME
-0.3010 ME OF </s>
-0.3010 ME UP </s>
-0.3010 OFF THE LIGHT
-0.3010 ON THE LIGHT
-0.3010 PLAY A SONG
-0.3010 REMIND ME OF
-0.3010 TELL THE TIME
-0.3010 THE LIGHT </s>
-0.3010 THE TIME </s>
-0.3010 TURN OFF THE
-0.3010 TURN ON THE
-0.3010 WAKE ME UP

\end\
