Language model created by QuickLM on Thu Apr 27 07:42:38 EDT 2017
Copyright (c) 1996-2010 Carnegie Mellon University and Alexander I. Rudnicky

The model is in standard ARPA format, designed by Doug Paul while he was at MITRE.

The code that was used to produce this language model is available in Open Source.
Please visit http://www.speech.cs.cmu.edu/tools/ for more information

The (fixed) discount mass is 0.5. The backoffs are computed using the ratio method.
This model based on a corpus of 8 sentences and 22 words

\data\
ngram 1=22
ngram 2=30
ngram 3=31

\1-grams:
-1.0881 </s> -0.3010
-1.0881 <s> -0.2640
-1.9912 A -0.2921
-1.0881 ALFRED -0.2640
-1.9912 AN -0.2966
-1.9912 ARTICLE -0.2640
-1.9912 CHECK -0.2966
-1.6902 LIGHT -0.2640
-1.6902 ME -0.2921
-1.9912 OF -0.2640
-1.9912 OFF -0.2875
-1.9912 ON -0.2875
-1.9912 PLAY -0.2966
-1.9912 REMIND -0.2921
-1.6902 SONG -0.2640
-1.9912 STOP -0.2921
-1.9912 TELL -0.2875
-1.5141 THE -0.2875
-1.9912 TIME -0.2640
-1.6902 TURN -0.2921
-1.9912 UP -0.2640
-1.9912 WAKE -0.2921

\2-grams:
-0.3010 <s> ALFRED 0.0000
-0.3010 A SONG 0.0000
-1.2041 ALFRED CHECK 0.0000
-1.2041 ALFRED PLAY 0.0000
-1.2041 ALFRED REMIND 0.0000
-1.2041 ALFRED STOP 0.0000
-1.2041 ALFRED TELL 0.0000
-0.9031 ALFRED TURN 0.0000
-1.2041 ALFRED WAKE 0.0000
-0.3010 AN ARTICLE 0.0000
-0.3010 ARTICLE </s> -0.3010
-0.3010 CHECK AN 0.0000
-0.3010 LIGHT </s> -0.3010
-0.6021 ME OF 0.0000
-0.6021 ME UP 0.0000
-0.3010 OF </s> -0.3010
-0.3010 OFF THE -0.1249
-0.3010 ON THE -0.1249
-0.3010 PLAY A 0.0000
-0.3010 REMIND ME -0.1761
-0.3010 SONG </s> -0.3010
-0.3010 STOP SONG 0.0000
-0.3010 TELL THE -0.2218
-0.4771 THE LIGHT 0.0000
-0.7782 THE TIME 0.0000
-0.3010 TIME </s> -0.3010
-0.6021 TURN OFF 0.0000
-0.6021 TURN ON 0.0000
-0.3010 UP </s> -0.3010
-0.3010 WAKE ME -0.1761

\3-grams:
-1.2041 <s> ALFRED CHECK
-1.2041 <s> ALFRED PLAY
-1.2041 <s> ALFRED REMIND
-1.2041 <s> ALFRED STOP
-1.2041 <s> ALFRED TELL
-0.9031 <s> ALFRED TURN
-1.2041 <s> ALFRED WAKE
-0.3010 A SONG </s>
-0.3010 ALFRED CHECK AN
-0.3010 ALFRED PLAY A
-0.3010 ALFRED REMIND ME
-0.3010 ALFRED STOP SONG
-0.3010 ALFRED TELL THE
-0.6021 ALFRED TURN OFF
-0.6021 ALFRED TURN ON
-0.3010 ALFRED WAKE ME
-0.3010 AN ARTICLE </s>
-0.3010 CHECK AN ARTICLE
-0.3010 ME OF </s>
-0.3010 ME UP </s>
-0.3010 OFF THE LIGHT
-0.3010 ON THE LIGHT
-0.3010 PLAY A SONG
-0.3010 REMIND ME OF
-0.3010 STOP SONG </s>
-0.3010 TELL THE TIME
-0.3010 THE LIGHT </s>
-0.3010 THE TIME </s>
-0.3010 TURN OFF THE
-0.3010 TURN ON THE
-0.3010 WAKE ME UP

\end\
