Language model created by QuickLM on Sun Apr 30 04:16:38 EDT 2017
Copyright (c) 1996-2010 Carnegie Mellon University and Alexander I. Rudnicky

The model is in standard ARPA format, designed by Doug Paul while he was at MITRE.

The code that was used to produce this language model is available in Open Source.
Please visit http://www.speech.cs.cmu.edu/tools/ for more information

The (fixed) discount mass is 0.5. The backoffs are computed using the ratio method.
This model based on a corpus of 10 sentences and 25 words

\data\
ngram 1=25
ngram 2=35
ngram 3=36

\1-grams:
-1.0792 </s> -0.3010
-1.0792 <s> -0.2632
-2.0792 A -0.2937
-1.0792 ALFRED -0.2632
-2.0792 AN -0.2974
-2.0792 ARTICLE -0.2632
-1.6021 CHECK -0.2900
-2.0792 EMAIL -0.2632
-2.0792 HACKER -0.2974
-1.7782 LIGHT -0.2632
-1.7782 ME -0.2937
-2.0792 NEWS -0.2632
-2.0792 OF -0.2632
-2.0792 OFF -0.2900
-2.0792 ON -0.2900
-2.0792 PLAY -0.2974
-2.0792 REMIND -0.2937
-1.7782 SONG -0.2632
-2.0792 STOP -0.2937
-2.0792 TELL -0.2900
-1.6021 THE -0.2900
-2.0792 TIME -0.2632
-1.7782 TURN -0.2937
-2.0792 UP -0.2632
-2.0792 WAKE -0.2937

\2-grams:
-0.3010 <s> ALFRED 0.0000
-0.3010 A SONG 0.0000
-0.8239 ALFRED CHECK 0.0000
-1.3010 ALFRED PLAY 0.0000
-1.3010 ALFRED REMIND 0.0000
-1.3010 ALFRED STOP 0.0000
-1.3010 ALFRED TELL 0.0000
-1.0000 ALFRED TURN 0.0000
-1.3010 ALFRED WAKE 0.0000
-0.3010 AN ARTICLE 0.0000
-0.3010 ARTICLE </s> -0.3010
-0.7782 CHECK AN 0.0000
-0.7782 CHECK EMAIL 0.0000
-0.7782 CHECK HACKER 0.0000
-0.3010 EMAIL </s> -0.3010
-0.3010 HACKER NEWS 0.0000
-0.3010 LIGHT </s> -0.3010
-0.6021 ME OF 0.0000
-0.6021 ME UP 0.0000
-0.3010 NEWS </s> -0.3010
-0.3010 OF </s> -0.3010
-0.3010 OFF THE -0.1249
-0.3010 ON THE -0.1249
-0.3010 PLAY A 0.0000
-0.3010 REMIND ME -0.1761
-0.3010 SONG </s> -0.3010
-0.3010 STOP SONG 0.0000
-0.3010 TELL THE -0.2218
-0.4771 THE LIGHT 0.0000
-0.7782 THE TIME 0.0000
-0.3010 TIME </s> -0.3010
-0.6021 TURN OFF 0.0000
-0.6021 TURN ON 0.0000
-0.3010 UP </s> -0.3010
-0.3010 WAKE ME -0.1761

\3-grams:
-0.8239 <s> ALFRED CHECK
-1.3010 <s> ALFRED PLAY
-1.3010 <s> ALFRED REMIND
-1.3010 <s> ALFRED STOP
-1.3010 <s> ALFRED TELL
-1.0000 <s> ALFRED TURN
-1.3010 <s> ALFRED WAKE
-0.3010 A SONG </s>
-0.7782 ALFRED CHECK AN
-0.7782 ALFRED CHECK EMAIL
-0.7782 ALFRED CHECK HACKER
-0.3010 ALFRED PLAY A
-0.3010 ALFRED REMIND ME
-0.3010 ALFRED STOP SONG
-0.3010 ALFRED TELL THE
-0.6021 ALFRED TURN OFF
-0.6021 ALFRED TURN ON
-0.3010 ALFRED WAKE ME
-0.3010 AN ARTICLE </s>
-0.3010 CHECK AN ARTICLE
-0.3010 CHECK EMAIL </s>
-0.3010 CHECK HACKER NEWS
-0.3010 HACKER NEWS </s>
-0.3010 ME OF </s>
-0.3010 ME UP </s>
-0.3010 OFF THE LIGHT
-0.3010 ON THE LIGHT
-0.3010 PLAY A SONG
-0.3010 REMIND ME OF
-0.3010 STOP SONG </s>
-0.3010 TELL THE TIME
-0.3010 THE LIGHT </s>
-0.3010 THE TIME </s>
-0.3010 TURN OFF THE
-0.3010 TURN ON THE
-0.3010 WAKE ME UP

\end\
