Language model created by QuickLM on Thu Apr 27 07:27:06 EDT 2017
Copyright (c) 1996-2010 Carnegie Mellon University and Alexander I. Rudnicky

The model is in standard ARPA format, designed by Doug Paul while he was at MITRE.

The code that was used to produce this language model is available in Open Source.
Please visit http://www.speech.cs.cmu.edu/tools/ for more information

The (fixed) discount mass is 0.5. The backoffs are computed using the ratio method.
This model based on a corpus of 7 sentences and 22 words

\data\
ngram 1=22
ngram 2=29
ngram 3=28

\1-grams:
-1.0994 </s> -0.3010
-1.0994 <s> -0.2650
-1.9445 A -0.2961
-1.9445 ALFRE -0.2961
-1.1663 ALFRED -0.2704
-1.9445 AN -0.2961
-1.9445 ARTICLE -0.2650
-1.9445 CHECK -0.2961
-1.6435 LIGHT -0.2650
-1.6435 ME -0.2910
-1.9445 OF -0.2650
-1.9445 OFF -0.2860
-1.9445 ON -0.2860
-1.9445 PLAY -0.2961
-1.9445 REMIND -0.2910
-1.9445 SONG -0.2650
-1.9445 TELL -0.2860
-1.4674 THE -0.2860
-1.9445 TIME -0.2650
-1.6435 TURN -0.2910
-1.9445 UP -0.2650
-1.9445 WAKE -0.2910

\2-grams:
-1.1461 <s> ALFRE 0.0000
-0.3680 <s> ALFRED 0.0000
-0.3010 A SONG 0.0000
-0.3010 ALFRE CHECK 0.0000
-1.0792 ALFRED PLAY 0.0000
-1.0792 ALFRED REMIND 0.0000
-1.0792 ALFRED TELL 0.0000
-0.7782 ALFRED TURN 0.0000
-1.0792 ALFRED WAKE 0.0000
-0.3010 AN ARTICLE 0.0000
-0.3010 ARTICLE </s> -0.3010
-0.3010 CHECK AN 0.0000
-0.3010 LIGHT </s> -0.3010
-0.6021 ME OF 0.0000
-0.6021 ME UP 0.0000
-0.3010 OF </s> -0.3010
-0.3010 OFF THE -0.1249
-0.3010 ON THE -0.1249
-0.3010 PLAY A 0.0000
-0.3010 REMIND ME -0.1761
-0.3010 SONG </s> -0.3010
-0.3010 TELL THE -0.2218
-0.4771 THE LIGHT 0.0000
-0.7782 THE TIME 0.0000
-0.3010 TIME </s> -0.3010
-0.6021 TURN OFF 0.0000
-0.6021 TURN ON 0.0000
-0.3010 UP </s> -0.3010
-0.3010 WAKE ME -0.1761

\3-grams:
-0.3010 <s> ALFRE CHECK
-1.0792 <s> ALFRED PLAY
-1.0792 <s> ALFRED REMIND
-1.0792 <s> ALFRED TELL
-0.7782 <s> ALFRED TURN
-1.0792 <s> ALFRED WAKE
-0.3010 A SONG </s>
-0.3010 ALFRE CHECK AN
-0.3010 ALFRED PLAY A
-0.3010 ALFRED REMIND ME
-0.3010 ALFRED TELL THE
-0.6021 ALFRED TURN OFF
-0.6021 ALFRED TURN ON
-0.3010 ALFRED WAKE ME
-0.3010 AN ARTICLE </s>
-0.3010 CHECK AN ARTICLE
-0.3010 ME OF </s>
-0.3010 ME UP </s>
-0.3010 OFF THE LIGHT
-0.3010 ON THE LIGHT
-0.3010 PLAY A SONG
-0.3010 REMIND ME OF
-0.3010 TELL THE TIME
-0.3010 THE LIGHT </s>
-0.3010 THE TIME </s>
-0.3010 TURN OFF THE
-0.3010 TURN ON THE
-0.3010 WAKE ME UP

\end\
